<?xml version="1.0"?>
<opencv_storage>
<stage4>
  <maxWeakCount>6</maxWeakCount>
  <stageThreshold>-6.6507661342620850e-01</stageThreshold>
  <weakClassifiers>
    <_>
      <internalNodes>
        0 -1 1513545 2.6988975703716278e-02</internalNodes>
      <leafValues>
        5.3447431325912476e-01 -8.2535213232040405e-01</leafValues></_>
    <_>
      <internalNodes>
        0 -1 2208767 4.2198281735181808e-03</internalNodes>
      <leafValues>
        -8.2022452354431152e-01 3.2476532459259033e-01</leafValues></_>
    <_>
      <internalNodes>
        0 -1 2318166 -3.4582731314003468e-03</internalNodes>
      <leafValues>
        4.6003478765487671e-01 -4.9033194780349731e-01</leafValues></_>
    <_>
      <internalNodes>
        0 -1 950423 1.1527861934155226e-03</internalNodes>
      <leafValues>
        -4.7856754064559937e-01 5.1868420839309692e-01</leafValues></_>
    <_>
      <internalNodes>
        0 -1 1766391 -1.1470753233879805e-03</internalNodes>
      <leafValues>
        -8.3942455053329468e-01 2.7303150296211243e-01</leafValues></_>
    <_>
      <internalNodes>
        0 -1 430635 3.7413742393255234e-03</internalNodes>
      <leafValues>
        -4.1898858547210693e-01 6.0869061946868896e-01</leafValues></_></weakClassifiers></stage4>
</opencv_storage>
