<?xml version="1.0"?>
<opencv_storage>
<stage2>
  <maxWeakCount>5</maxWeakCount>
  <stageThreshold>-6.1474472284317017e-01</stageThreshold>
  <weakClassifiers>
    <_>
      <internalNodes>
        0 -1 1944683 1.7664344981312752e-02</internalNodes>
      <leafValues>
        -7.2212064266204834e-01 6.4490014314651489e-01</leafValues></_>
    <_>
      <internalNodes>
        0 -1 1143446 1.9282568246126175e-02</internalNodes>
      <leafValues>
        -8.1995290517807007e-01 4.2203459143638611e-01</leafValues></_>
    <_>
      <internalNodes>
        0 -1 2940275 4.9434499815106392e-03</internalNodes>
      <leafValues>
        -4.7956806421279907e-01 6.8692231178283691e-01</leafValues></_>
    <_>
      <internalNodes>
        0 -1 2259843 6.8095372989773750e-03</internalNodes>
      <leafValues>
        -4.5405116677284241e-01 6.8749392032623291e-01</leafValues></_>
    <_>
      <internalNodes>
        0 -1 653995 -1.0147516150027514e-03</internalNodes>
      <leafValues>
        6.1896061897277832e-01 -4.1487687826156616e-01</leafValues></_></weakClassifiers></stage2>
</opencv_storage>
