<?xml version="1.0"?>
<opencv_storage>
<stage5>
  <maxWeakCount>5</maxWeakCount>
  <stageThreshold>-1.0059633255004883e+00</stageThreshold>
  <weakClassifiers>
    <_>
      <internalNodes>
        0 -1 1691375 -8.5030449554324150e-03</internalNodes>
      <leafValues>
        6.5677720308303833e-01 -4.8311308026313782e-01</leafValues></_>
    <_>
      <internalNodes>
        0 -1 1975383 -2.5821619201451540e-03</internalNodes>
      <leafValues>
        4.3936675786972046e-01 -5.8481979370117188e-01</leafValues></_>
    <_>
      <internalNodes>
        0 -1 2940270 4.6210139989852905e-03</internalNodes>
      <leafValues>
        -4.3906393647193909e-01 6.1582064628601074e-01</leafValues></_>
    <_>
      <internalNodes>
        0 -1 1811923 -3.9705507457256317e-02</internalNodes>
      <leafValues>
        -9.3344253301620483e-01 2.4300390481948853e-01</leafValues></_>
    <_>
      <internalNodes>
        0 -1 1501963 8.1743951886892319e-03</internalNodes>
      <leafValues>
        2.5802955031394958e-01 -9.2018109560012817e-01</leafValues></_></weakClassifiers></stage5>
</opencv_storage>
